FANN_FLO_2.1
num_layers=3
learning_rate=0.500000
connection_rate=1.000000
network_type=0
learning_momentum=0.000000
training_algorithm=1
train_error_function=1
train_stop_function=0
cascade_output_change_fraction=0.010000
quickprop_decay=-0.000100
quickprop_mu=1.750000
rprop_increase_factor=1.200000
rprop_decrease_factor=0.500000
rprop_delta_min=0.000000
rprop_delta_max=50.000000
rprop_delta_zero=0.100000
cascade_output_stagnation_epochs=12
cascade_candidate_change_fraction=0.010000
cascade_candidate_stagnation_epochs=12
cascade_max_out_epochs=150
cascade_min_out_epochs=50
cascade_max_cand_epochs=150
cascade_min_cand_epochs=50
cascade_num_candidate_groups=2
bit_fail_limit=3.49999994039535522461e-01
cascade_candidate_limit=1.00000000000000000000e+03
cascade_weight_multiplier=4.00000005960464477539e-01
cascade_activation_functions_count=10
cascade_activation_functions=3 5 7 8 10 11 14 15 16 17 
cascade_activation_steepnesses_count=4
cascade_activation_steepnesses=2.50000000000000000000e-01 5.00000000000000000000e-01 7.50000000000000000000e-01 1.00000000000000000000e+00 
layer_sizes=3 4 5 
scale_included=0
neurons (num_inputs, activation_function, activation_steepness)=(0, 0, 0.00000000000000000000e+00) (0, 0, 0.00000000000000000000e+00) (0, 0, 0.00000000000000000000e+00) (3, 3, 5.00000000000000000000e-01) (3, 3, 5.00000000000000000000e-01) (3, 3, 5.00000000000000000000e-01) (0, 3, 0.00000000000000000000e+00) (4, 3, 5.00000000000000000000e-01) (4, 3, 5.00000000000000000000e-01) (4, 3, 5.00000000000000000000e-01) (4, 3, 5.00000000000000000000e-01) (0, 3, 0.00000000000000000000e+00) 
connections (connected_to_neuron, weight)=(0, 6.50342762470245361328e-01) (1, -1.56354570388793945312e+01) (2, 6.88923025131225585938e+00) (0, 2.27050094604492187500e+01) (1, 7.60409414768218994141e-01) (2, -1.15110893249511718750e+01) (0, 1.56130051612854003906e+00) (1, 1.59626111984252929688e+01) (2, -8.95983600616455078125e+00) (3, -5.15642118453979492188e+00) (4, -1.06096677780151367188e+01) (5, 6.22553396224975585938e+00) (6, 4.49842303991317749023e-01) (3, -1.03122091293334960938e+01) (4, 1.05664167404174804688e+01) (5, 8.20134937763214111328e-01) (6, -6.33802986145019531250e+00) (3, 6.34444761276245117188e+00) (4, -1.25672159194946289062e+01) (5, -5.73826932907104492188e+00) (6, -7.27443322539329528809e-02) (3, -3.03622245788574218750e-01) (4, 9.51918125152587890625e+00) (5, -9.88459682464599609375e+00) (6, -3.74705648422241210938e+00) 
